digraph Tree {
node [shape=box] ;
0 [label="X[766] <= 0.5\ngini = 0.666\nsamples = 270\nvalue = [95, 90, 85]"] ;
1 [label="X[767] <= 0.5\ngini = 0.622\nsamples = 214\nvalue = [95, 35, 84]"] ;
0 -> 1 [labeldistance=2.5, labelangle=45, headlabel="True"] ;
2 [label="X[682] <= 0.5\ngini = 0.584\nsamples = 199\nvalue = [95, 20, 84]"] ;
1 -> 2 ;
3 [label="X[431] <= 0.5\ngini = 0.567\nsamples = 193\nvalue = [94, 15, 84]"] ;
2 -> 3 ;
4 [label="X[576] <= 0.5\ngini = 0.56\nsamples = 191\nvalue = [94, 13, 84]"] ;
3 -> 4 ;
5 [label="X[782] <= 0.5\ngini = 0.552\nsamples = 189\nvalue = [94, 11, 84]"] ;
4 -> 5 ;
6 [label="X[463] <= 0.5\ngini = 0.543\nsamples = 187\nvalue = [94, 9, 84]"] ;
5 -> 6 ;
7 [label="X[736] <= 0.5\ngini = 0.547\nsamples = 153\nvalue = [81, 9, 63]"] ;
6 -> 7 ;
8 [label="X[1001] <= 0.5\ngini = 0.541\nsamples = 152\nvalue = [81, 8, 63]"] ;
7 -> 8 ;
9 [label="X[732] <= 0.5\ngini = 0.536\nsamples = 151\nvalue = [81, 7, 63]"] ;
8 -> 9 ;
10 [label="X[150] <= 0.5\ngini = 0.53\nsamples = 150\nvalue = [81, 6, 63]"] ;
9 -> 10 ;
11 [label="X[555] <= 0.5\ngini = 0.525\nsamples = 149\nvalue = [81, 5, 63]"] ;
10 -> 11 ;
12 [label="X[821] <= 0.5\ngini = 0.519\nsamples = 148\nvalue = [81, 4, 63]"] ;
11 -> 12 ;
13 [label="X[387] <= 0.5\ngini = 0.512\nsamples = 147\nvalue = [81, 3, 63]"] ;
12 -> 13 ;
14 [label="X[729] <= 0.5\ngini = 0.506\nsamples = 146\nvalue = [81, 2, 63]"] ;
13 -> 14 ;
15 [label="X[28] <= 0.5\ngini = 0.499\nsamples = 145\nvalue = [81, 1, 63]"] ;
14 -> 15 ;
16 [label="X[5] <= 0.5\ngini = 0.492\nsamples = 144\nvalue = [81, 0, 63]"] ;
15 -> 16 ;
17 [label="X[330] <= 1.5\ngini = 0.49\nsamples = 142\nvalue = [81, 0, 61]"] ;
16 -> 17 ;
18 [label="X[780] <= 0.5\ngini = 0.488\nsamples = 140\nvalue = [81, 0, 59]"] ;
17 -> 18 ;
19 [label="X[407] <= 0.5\ngini = 0.485\nsamples = 138\nvalue = [81, 0, 57]"] ;
18 -> 19 ;
20 [label="X[105] <= 0.5\ngini = 0.482\nsamples = 136\nvalue = [81, 0, 55]"] ;
19 -> 20 ;
21 [label="X[276] <= 0.5\ngini = 0.478\nsamples = 134\nvalue = [81, 0, 53]"] ;
20 -> 21 ;
22 [label="X[848] <= 2.5\ngini = 0.474\nsamples = 132\nvalue = [81, 0, 51]"] ;
21 -> 22 ;
23 [label="X[460] <= 0.5\ngini = 0.481\nsamples = 124\nvalue = [74, 0, 50]"] ;
22 -> 23 ;
24 [label="X[118] <= 0.5\ngini = 0.497\nsamples = 72\nvalue = [39, 0, 33]"] ;
23 -> 24 ;
25 [label="X[523] <= 0.5\ngini = 0.493\nsamples = 70\nvalue = [39, 0, 31]"] ;
24 -> 25 ;
26 [label="X[847] <= 0.5\ngini = 0.496\nsamples = 68\nvalue = [37, 0, 31]"] ;
25 -> 26 ;
27 [label="X[414] <= 0.5\ngini = 0.499\nsamples = 60\nvalue = [31, 0, 29]"] ;
26 -> 27 ;
28 [label="X[521] <= 0.5\ngini = 0.497\nsamples = 56\nvalue = [30, 0, 26]"] ;
27 -> 28 ;
29 [label="X[32] <= 0.5\ngini = 0.496\nsamples = 55\nvalue = [30, 0, 25]"] ;
28 -> 29 ;
30 [label="X[982] <= 1.5\ngini = 0.494\nsamples = 54\nvalue = [30, 0, 24]"] ;
29 -> 30 ;
31 [label="X[626] <= 1.5\ngini = 0.486\nsamples = 48\nvalue = [28, 0, 20]"] ;
30 -> 31 ;
32 [label="X[961] <= 0.5\ngini = 0.494\nsamples = 45\nvalue = [25, 0, 20]"] ;
31 -> 32 ;
33 [label="X[778] <= 0.5\ngini = 0.498\nsamples = 43\nvalue = [23, 0, 20]"] ;
32 -> 33 ;
34 [label="X[314] <= 0.5\ngini = 0.495\nsamples = 42\nvalue = [23, 0, 19]"] ;
33 -> 34 ;
35 [label="X[186] <= 0.5\ngini = 0.493\nsamples = 41\nvalue = [23, 0, 18]"] ;
34 -> 35 ;
36 [label="X[861] <= 1.0\ngini = 0.495\nsamples = 40\nvalue = [22, 0, 18]"] ;
35 -> 36 ;
37 [label="X[575] <= 0.5\ngini = 0.497\nsamples = 39\nvalue = [21, 0, 18]"] ;
36 -> 37 ;
38 [label="X[381] <= 0.5\ngini = 0.499\nsamples = 38\nvalue = [20, 0, 18]"] ;
37 -> 38 ;
39 [label="X[642] <= 0.5\ngini = 0.5\nsamples = 37\nvalue = [19, 0, 18]"] ;
38 -> 39 ;
40 [label="X[971] <= 0.5\ngini = 0.5\nsamples = 36\nvalue = [18, 0, 18]"] ;
39 -> 40 ;
41 [label="X[559] <= 0.5\ngini = 0.5\nsamples = 34\nvalue = [17, 0, 17]"] ;
40 -> 41 ;
42 [label="X[35] <= 0.5\ngini = 0.5\nsamples = 32\nvalue = [16, 0, 16]"] ;
41 -> 42 ;
43 [label="X[762] <= 0.5\ngini = 0.5\nsamples = 24\nvalue = [12, 0, 12]"] ;
42 -> 43 ;
44 [label="X[443] <= 0.5\ngini = 0.5\nsamples = 22\nvalue = [11, 0, 11]"] ;
43 -> 44 ;
45 [label="X[626] <= 0.5\ngini = 0.5\nsamples = 20\nvalue = [10, 0, 10]"] ;
44 -> 45 ;
46 [label="X[292] <= 1.0\ngini = 0.5\nsamples = 8\nvalue = [4, 0, 4]"] ;
45 -> 46 ;
47 [label="X[992] <= 0.5\ngini = 0.5\nsamples = 6\nvalue = [3, 0, 3]"] ;
46 -> 47 ;
48 [label="X[958] <= 0.5\ngini = 0.5\nsamples = 4\nvalue = [2, 0, 2]"] ;
47 -> 48 ;
49 [label="gini = 0.5\nsamples = 2\nvalue = [1, 0, 1]"] ;
48 -> 49 ;
50 [label="gini = 0.5\nsamples = 2\nvalue = [1, 0, 1]"] ;
48 -> 50 ;
51 [label="gini = 0.5\nsamples = 2\nvalue = [1, 0, 1]"] ;
47 -> 51 ;
52 [label="gini = 0.5\nsamples = 2\nvalue = [1, 0, 1]"] ;
46 -> 52 ;
53 [label="X[603] <= 0.5\ngini = 0.5\nsamples = 12\nvalue = [6, 0, 6]"] ;
45 -> 53 ;
54 [label="X[849] <= 1.0\ngini = 0.5\nsamples = 10\nvalue = [5, 0, 5]"] ;
53 -> 54 ;
55 [label="X[581] <= 0.5\ngini = 0.5\nsamples = 8\nvalue = [4, 0, 4]"] ;
54 -> 55 ;
56 [label="X[848] <= 0.5\ngini = 0.5\nsamples = 4\nvalue = [2, 0, 2]"] ;
55 -> 56 ;
57 [label="gini = 0.5\nsamples = 2\nvalue = [1, 0, 1]"] ;
56 -> 57 ;
58 [label="gini = 0.5\nsamples = 2\nvalue = [1, 0, 1]"] ;
56 -> 58 ;
59 [label="X[974] <= 0.5\ngini = 0.5\nsamples = 4\nvalue = [2, 0, 2]"] ;
55 -> 59 ;
60 [label="gini = 0.5\nsamples = 2\nvalue = [1, 0, 1]"] ;
59 -> 60 ;
61 [label="gini = 0.5\nsamples = 2\nvalue = [1, 0, 1]"] ;
59 -> 61 ;
62 [label="gini = 0.5\nsamples = 2\nvalue = [1, 0, 1]"] ;
54 -> 62 ;
63 [label="gini = 0.5\nsamples = 2\nvalue = [1, 0, 1]"] ;
53 -> 63 ;
64 [label="gini = 0.5\nsamples = 2\nvalue = [1, 0, 1]"] ;
44 -> 64 ;
65 [label="gini = 0.5\nsamples = 2\nvalue = [1, 0, 1]"] ;
43 -> 65 ;
66 [label="X[938] <= 1.0\ngini = 0.5\nsamples = 8\nvalue = [4, 0, 4]"] ;
42 -> 66 ;
67 [label="X[71] <= 0.5\ngini = 0.5\nsamples = 6\nvalue = [3, 0, 3]"] ;
66 -> 67 ;
68 [label="X[749] <= 0.5\ngini = 0.5\nsamples = 4\nvalue = [2, 0, 2]"] ;
67 -> 68 ;
69 [label="gini = 0.5\nsamples = 2\nvalue = [1, 0, 1]"] ;
68 -> 69 ;
70 [label="gini = 0.5\nsamples = 2\nvalue = [1, 0, 1]"] ;
68 -> 70 ;
71 [label="gini = 0.5\nsamples = 2\nvalue = [1, 0, 1]"] ;
67 -> 71 ;
72 [label="gini = 0.5\nsamples = 2\nvalue = [1, 0, 1]"] ;
66 -> 72 ;
73 [label="gini = 0.5\nsamples = 2\nvalue = [1, 0, 1]"] ;
41 -> 73 ;
74 [label="gini = 0.5\nsamples = 2\nvalue = [1, 0, 1]"] ;
40 -> 74 ;
75 [label="gini = 0.0\nsamples = 1\nvalue = [1, 0, 0]"] ;
39 -> 75 ;
76 [label="gini = 0.0\nsamples = 1\nvalue = [1, 0, 0]"] ;
38 -> 76 ;
77 [label="gini = 0.0\nsamples = 1\nvalue = [1, 0, 0]"] ;
37 -> 77 ;
78 [label="gini = 0.0\nsamples = 1\nvalue = [1, 0, 0]"] ;
36 -> 78 ;
79 [label="gini = 0.0\nsamples = 1\nvalue = [1, 0, 0]"] ;
35 -> 79 ;
80 [label="gini = 0.0\nsamples = 1\nvalue = [0, 0, 1]"] ;
34 -> 80 ;
81 [label="gini = 0.0\nsamples = 1\nvalue = [0, 0, 1]"] ;
33 -> 81 ;
82 [label="gini = 0.0\nsamples = 2\nvalue = [2, 0, 0]"] ;
32 -> 82 ;
83 [label="gini = 0.0\nsamples = 3\nvalue = [3, 0, 0]"] ;
31 -> 83 ;
84 [label="X[992] <= 0.5\ngini = 0.444\nsamples = 6\nvalue = [2, 0, 4]"] ;
30 -> 84 ;
85 [label="X[384] <= 0.5\ngini = 0.5\nsamples = 4\nvalue = [2, 0, 2]"] ;
84 -> 85 ;
86 [label="gini = 0.5\nsamples = 2\nvalue = [1, 0, 1]"] ;
85 -> 86 ;
87 [label="gini = 0.5\nsamples = 2\nvalue = [1, 0, 1]"] ;
85 -> 87 ;
88 [label="gini = 0.0\nsamples = 2\nvalue = [0, 0, 2]"] ;
84 -> 88 ;
89 [label="gini = 0.0\nsamples = 1\nvalue = [0, 0, 1]"] ;
29 -> 89 ;
90 [label="gini = 0.0\nsamples = 1\nvalue = [0, 0, 1]"] ;
28 -> 90 ;
91 [label="X[121] <= 0.5\ngini = 0.375\nsamples = 4\nvalue = [1, 0, 3]"] ;
27 -> 91 ;
92 [label="gini = 0.0\nsamples = 2\nvalue = [0, 0, 2]"] ;
91 -> 92 ;
93 [label="gini = 0.5\nsamples = 2\nvalue = [1, 0, 1]"] ;
91 -> 93 ;
94 [label="X[381] <= 0.5\ngini = 0.375\nsamples = 8\nvalue = [6, 0, 2]"] ;
26 -> 94 ;
95 [label="gini = 0.0\nsamples = 4\nvalue = [4, 0, 0]"] ;
94 -> 95 ;
96 [label="X[858] <= 1.5\ngini = 0.5\nsamples = 4\nvalue = [2, 0, 2]"] ;
94 -> 96 ;
97 [label="gini = 0.5\nsamples = 2\nvalue = [1, 0, 1]"] ;
96 -> 97 ;
98 [label="gini = 0.5\nsamples = 2\nvalue = [1, 0, 1]"] ;
96 -> 98 ;
99 [label="gini = 0.0\nsamples = 2\nvalue = [2, 0, 0]"] ;
25 -> 99 ;
100 [label="gini = 0.0\nsamples = 2\nvalue = [0, 0, 2]"] ;
24 -> 100 ;
101 [label="X[556] <= 0.5\ngini = 0.44\nsamples = 52\nvalue = [35, 0, 17]"] ;
23 -> 101 ;
102 [label="X[626] <= 1.5\ngini = 0.431\nsamples = 51\nvalue = [35, 0, 16]"] ;
101 -> 102 ;
103 [label="X[381] <= 0.5\ngini = 0.393\nsamples = 41\nvalue = [30, 0, 11]"] ;
102 -> 103 ;
104 [label="X[321] <= 0.5\ngini = 0.353\nsamples = 35\nvalue = [27, 0, 8]"] ;
103 -> 104 ;
105 [label="X[49] <= 0.5\ngini = 0.26\nsamples = 26\nvalue = [22, 0, 4]"] ;
104 -> 105 ;
106 [label="X[605] <= 0.5\ngini = 0.165\nsamples = 22\nvalue = [20, 0, 2]"] ;
105 -> 106 ;
107 [label="X[698] <= 0.5\ngini = 0.095\nsamples = 20\nvalue = [19, 0, 1]"] ;
106 -> 107 ;
108 [label="gini = 0.0\nsamples = 18\nvalue = [18, 0, 0]"] ;
107 -> 108 ;
109 [label="gini = 0.5\nsamples = 2\nvalue = [1, 0, 1]"] ;
107 -> 109 ;
110 [label="gini = 0.5\nsamples = 2\nvalue = [1, 0, 1]"] ;
106 -> 110 ;
111 [label="X[631] <= 0.5\ngini = 0.5\nsamples = 4\nvalue = [2, 0, 2]"] ;
105 -> 111 ;
112 [label="gini = 0.5\nsamples = 2\nvalue = [1, 0, 1]"] ;
111 -> 112 ;
113 [label="gini = 0.5\nsamples = 2\nvalue = [1, 0, 1]"] ;
111 -> 113 ;
114 [label="X[495] <= 0.5\ngini = 0.494\nsamples = 9\nvalue = [5, 0, 4]"] ;
104 -> 114 ;
115 [label="X[403] <= 1.5\ngini = 0.5\nsamples = 8\nvalue = [4, 0, 4]"] ;
114 -> 115 ;
116 [label="X[847] <= 0.5\ngini = 0.5\nsamples = 6\nvalue = [3, 0, 3]"] ;
115 -> 116 ;
117 [label="X[931] <= 0.5\ngini = 0.5\nsamples = 4\nvalue = [2, 0, 2]"] ;
116 -> 117 ;
118 [label="gini = 0.5\nsamples = 2\nvalue = [1, 0, 1]"] ;
117 -> 118 ;
119 [label="gini = 0.5\nsamples = 2\nvalue = [1, 0, 1]"] ;
117 -> 119 ;
120 [label="gini = 0.5\nsamples = 2\nvalue = [1, 0, 1]"] ;
116 -> 120 ;
121 [label="gini = 0.5\nsamples = 2\nvalue = [1, 0, 1]"] ;
115 -> 121 ;
122 [label="gini = 0.0\nsamples = 1\nvalue = [1, 0, 0]"] ;
114 -> 122 ;
123 [label="X[853] <= 0.5\ngini = 0.5\nsamples = 6\nvalue = [3, 0, 3]"] ;
103 -> 123 ;
124 [label="X[626] <= 0.5\ngini = 0.5\nsamples = 4\nvalue = [2, 0, 2]"] ;
123 -> 124 ;
125 [label="gini = 0.5\nsamples = 2\nvalue = [1, 0, 1]"] ;
124 -> 125 ;
126 [label="gini = 0.5\nsamples = 2\nvalue = [1, 0, 1]"] ;
124 -> 126 ;
127 [label="gini = 0.5\nsamples = 2\nvalue = [1, 0, 1]"] ;
123 -> 127 ;
128 [label="X[716] <= 0.5\ngini = 0.5\nsamples = 10\nvalue = [5, 0, 5]"] ;
102 -> 128 ;
129 [label="X[436] <= 0.5\ngini = 0.5\nsamples = 8\nvalue = [4, 0, 4]"] ;
128 -> 129 ;
130 [label="X[952] <= 1.0\ngini = 0.5\nsamples = 4\nvalue = [2, 0, 2]"] ;
129 -> 130 ;
131 [label="gini = 0.5\nsamples = 2\nvalue = [1, 0, 1]"] ;
130 -> 131 ;
132 [label="gini = 0.5\nsamples = 2\nvalue = [1, 0, 1]"] ;
130 -> 132 ;
133 [label="X[847] <= 0.5\ngini = 0.5\nsamples = 4\nvalue = [2, 0, 2]"] ;
129 -> 133 ;
134 [label="gini = 0.5\nsamples = 2\nvalue = [1, 0, 1]"] ;
133 -> 134 ;
135 [label="gini = 0.5\nsamples = 2\nvalue = [1, 0, 1]"] ;
133 -> 135 ;
136 [label="gini = 0.5\nsamples = 2\nvalue = [1, 0, 1]"] ;
128 -> 136 ;
137 [label="gini = 0.0\nsamples = 1\nvalue = [0, 0, 1]"] ;
101 -> 137 ;
138 [label="X[35] <= 0.5\ngini = 0.219\nsamples = 8\nvalue = [7, 0, 1]"] ;
22 -> 138 ;
139 [label="gini = 0.5\nsamples = 2\nvalue = [1, 0, 1]"] ;
138 -> 139 ;
140 [label="gini = 0.0\nsamples = 6\nvalue = [6, 0, 0]"] ;
138 -> 140 ;
141 [label="gini = 0.0\nsamples = 2\nvalue = [0, 0, 2]"] ;
21 -> 141 ;
142 [label="gini = 0.0\nsamples = 2\nvalue = [0, 0, 2]"] ;
20 -> 142 ;
143 [label="gini = 0.0\nsamples = 2\nvalue = [0, 0, 2]"] ;
19 -> 143 ;
144 [label="gini = 0.0\nsamples = 2\nvalue = [0, 0, 2]"] ;
18 -> 144 ;
145 [label="gini = 0.0\nsamples = 2\nvalue = [0, 0, 2]"] ;
17 -> 145 ;
146 [label="gini = 0.0\nsamples = 2\nvalue = [0, 0, 2]"] ;
16 -> 146 ;
147 [label="gini = 0.0\nsamples = 1\nvalue = [0, 1, 0]"] ;
15 -> 147 ;
148 [label="gini = 0.0\nsamples = 1\nvalue = [0, 1, 0]"] ;
14 -> 148 ;
149 [label="gini = 0.0\nsamples = 1\nvalue = [0, 1, 0]"] ;
13 -> 149 ;
150 [label="gini = 0.0\nsamples = 1\nvalue = [0, 1, 0]"] ;
12 -> 150 ;
151 [label="gini = 0.0\nsamples = 1\nvalue = [0, 1, 0]"] ;
11 -> 151 ;
152 [label="gini = 0.0\nsamples = 1\nvalue = [0, 1, 0]"] ;
10 -> 152 ;
153 [label="gini = 0.0\nsamples = 1\nvalue = [0, 1, 0]"] ;
9 -> 153 ;
154 [label="gini = 0.0\nsamples = 1\nvalue = [0, 1, 0]"] ;
8 -> 154 ;
155 [label="gini = 0.0\nsamples = 1\nvalue = [0, 1, 0]"] ;
7 -> 155 ;
156 [label="X[123] <= 0.5\ngini = 0.472\nsamples = 34\nvalue = [13, 0, 21]"] ;
6 -> 156 ;
157 [label="X[559] <= 0.5\ngini = 0.491\nsamples = 30\nvalue = [13, 0, 17]"] ;
156 -> 157 ;
158 [label="X[847] <= 0.5\ngini = 0.5\nsamples = 26\nvalue = [13, 0, 13]"] ;
157 -> 158 ;
159 [label="X[591] <= 1.5\ngini = 0.491\nsamples = 23\nvalue = [10, 0, 13]"] ;
158 -> 159 ;
160 [label="X[278] <= 0.5\ngini = 0.5\nsamples = 18\nvalue = [9, 0, 9]"] ;
159 -> 160 ;
161 [label="X[836] <= 0.5\ngini = 0.498\nsamples = 17\nvalue = [9, 0, 8]"] ;
160 -> 161 ;
162 [label="X[227] <= 0.5\ngini = 0.492\nsamples = 16\nvalue = [9, 0, 7]"] ;
161 -> 162 ;
163 [label="X[334] <= 0.5\ngini = 0.498\nsamples = 15\nvalue = [8, 0, 7]"] ;
162 -> 163 ;
164 [label="X[626] <= 0.5\ngini = 0.5\nsamples = 14\nvalue = [7, 0, 7]"] ;
163 -> 164 ;
165 [label="X[35] <= 1.0\ngini = 0.5\nsamples = 6\nvalue = [3, 0, 3]"] ;
164 -> 165 ;
166 [label="X[321] <= 0.5\ngini = 0.5\nsamples = 4\nvalue = [2, 0, 2]"] ;
165 -> 166 ;
167 [label="gini = 0.5\nsamples = 2\nvalue = [1, 0, 1]"] ;
166 -> 167 ;
168 [label="gini = 0.5\nsamples = 2\nvalue = [1, 0, 1]"] ;
166 -> 168 ;
169 [label="gini = 0.5\nsamples = 2\nvalue = [1, 0, 1]"] ;
165 -> 169 ;
170 [label="X[389] <= 0.5\ngini = 0.5\nsamples = 8\nvalue = [4, 0, 4]"] ;
164 -> 170 ;
171 [label="X[607] <= 0.5\ngini = 0.5\nsamples = 6\nvalue = [3, 0, 3]"] ;
170 -> 171 ;
172 [label="X[482] <= 0.5\ngini = 0.5\nsamples = 4\nvalue = [2, 0, 2]"] ;
171 -> 172 ;
173 [label="gini = 0.5\nsamples = 2\nvalue = [1, 0, 1]"] ;
172 -> 173 ;
174 [label="gini = 0.5\nsamples = 2\nvalue = [1, 0, 1]"] ;
172 -> 174 ;
175 [label="gini = 0.5\nsamples = 2\nvalue = [1, 0, 1]"] ;
171 -> 175 ;
176 [label="gini = 0.5\nsamples = 2\nvalue = [1, 0, 1]"] ;
170 -> 176 ;
177 [label="gini = 0.0\nsamples = 1\nvalue = [1, 0, 0]"] ;
163 -> 177 ;
178 [label="gini = 0.0\nsamples = 1\nvalue = [1, 0, 0]"] ;
162 -> 178 ;
179 [label="gini = 0.0\nsamples = 1\nvalue = [0, 0, 1]"] ;
161 -> 179 ;
180 [label="gini = 0.0\nsamples = 1\nvalue = [0, 0, 1]"] ;
160 -> 180 ;
181 [label="X[845] <= 0.5\ngini = 0.32\nsamples = 5\nvalue = [1, 0, 4]"] ;
159 -> 181 ;
182 [label="gini = 0.0\nsamples = 3\nvalue = [0, 0, 3]"] ;
181 -> 182 ;
183 [label="gini = 0.5\nsamples = 2\nvalue = [1, 0, 1]"] ;
181 -> 183 ;
184 [label="gini = 0.0\nsamples = 3\nvalue = [3, 0, 0]"] ;
158 -> 184 ;
185 [label="gini = 0.0\nsamples = 4\nvalue = [0, 0, 4]"] ;
157 -> 185 ;
186 [label="gini = 0.0\nsamples = 4\nvalue = [0, 0, 4]"] ;
156 -> 186 ;
187 [label="gini = 0.0\nsamples = 2\nvalue = [0, 2, 0]"] ;
5 -> 187 ;
188 [label="gini = 0.0\nsamples = 2\nvalue = [0, 2, 0]"] ;
4 -> 188 ;
189 [label="gini = 0.0\nsamples = 2\nvalue = [0, 2, 0]"] ;
3 -> 189 ;
190 [label="X[626] <= 0.5\ngini = 0.278\nsamples = 6\nvalue = [1, 5, 0]"] ;
2 -> 190 ;
191 [label="gini = 0.0\nsamples = 5\nvalue = [0, 5, 0]"] ;
190 -> 191 ;
192 [label="gini = 0.0\nsamples = 1\nvalue = [1, 0, 0]"] ;
190 -> 192 ;
193 [label="gini = 0.0\nsamples = 15\nvalue = [0, 15, 0]"] ;
1 -> 193 ;
194 [label="X[815] <= 0.5\ngini = 0.035\nsamples = 56\nvalue = [0, 55, 1]"] ;
0 -> 194 [labeldistance=2.5, labelangle=-45, headlabel="False"] ;
195 [label="gini = 0.0\nsamples = 55\nvalue = [0, 55, 0]"] ;
194 -> 195 ;
196 [label="gini = 0.0\nsamples = 1\nvalue = [0, 0, 1]"] ;
194 -> 196 ;
}
